digraph Tree {
node [shape=box, style="filled, rounded", color="black", fontname=helvetica] ;
edge [fontname=helvetica] ;
0 [label="x2 <= -1.3707\ngini = 0.6667\nsamples = 300\nvalue = [100, 100, 100]\nclass = Yellow", fillcolor="#e5813900"] ;
1 [label="x1 <= 0.2424\ngini = 0.217\nsamples = 105\nvalue = [0, 13, 92]\nclass = Red", fillcolor="#8139e5db"] ;
0 -> 1 [labeldistance=2.5, labelangle=45, headlabel="True"] ;
2 [label="gini = 0.0425\nsamples = 92\nvalue = [0, 2, 90]\nclass = Red", fillcolor="#8139e5f9"] ;
1 -> 2 ;
3 [label="gini = 0.2604\nsamples = 13\nvalue = [0, 11, 2]\nclass = Blue", fillcolor="#39e581d1"] ;
1 -> 3 ;
4 [label="x1 <= 0.8566\ngini = 0.5363\nsamples = 195\nvalue = [100, 87, 8]\nclass = Yellow", fillcolor="#e581391f"] ;
0 -> 4 [labeldistance=2.5, labelangle=-45, headlabel="False"] ;
5 [label="gini = 0.272\nsamples = 104\nvalue = [88, 9, 7]\nclass = Yellow", fillcolor="#e58139d4"] ;
4 -> 5 ;
6 [label="gini = 0.2478\nsamples = 91\nvalue = [12, 78, 1]\nclass = Blue", fillcolor="#39e581d5"] ;
4 -> 6 ;
}